digraph Tree {
node [shape=box, style="filled", color="black", fontname="helvetica"] ;
edge [fontname="helvetica"] ;
0 [label="petal_width <= 1.75\nentropy = 0.998\nsamples = 80\nvalue = [38, 42]", fillcolor="#ecf6fd"] ;
1 [label="petal_length <= 5.3\nentropy = 0.384\nsamples = 40\nvalue = [37, 3]", fillcolor="#e78b49"] ;
0 -> 1 [labeldistance=2.5, labelangle=45, headlabel="True"] ;
2 [label="sepal_length <= 4.95\nentropy = 0.176\nsamples = 38\nvalue = [37, 1]", fillcolor="#e6843e"] ;
1 -> 2 ;
3 [label="petal_width <= 1.35\nentropy = 1.0\nsamples = 2\nvalue = [1, 1]", fillcolor="#ffffff"] ;
2 -> 3 ;
4 [label="entropy = 0.0\nsamples = 1\nvalue = [1, 0]", fillcolor="#e58139"] ;
3 -> 4 ;
5 [label="entropy = 0.0\nsamples = 1\nvalue = [0, 1]", fillcolor="#399de5"] ;
3 -> 5 ;
6 [label="entropy = 0.0\nsamples = 36\nvalue = [36, 0]", fillcolor="#e58139"] ;
2 -> 6 ;
7 [label="entropy = 0.0\nsamples = 2\nvalue = [0, 2]", fillcolor="#399de5"] ;
1 -> 7 ;
8 [label="petal_length <= 4.85\nentropy = 0.169\nsamples = 40\nvalue = [1, 39]", fillcolor="#3ea0e6"] ;
0 -> 8 [labeldistance=2.5, labelangle=-45, headlabel="False"] ;
9 [label="sepal_width <= 3.1\nentropy = 0.918\nsamples = 3\nvalue = [1, 2]", fillcolor="#9ccef2"] ;
8 -> 9 ;
10 [label="entropy = 0.0\nsamples = 2\nvalue = [0, 2]", fillcolor="#399de5"] ;
9 -> 10 ;
11 [label="entropy = 0.0\nsamples = 1\nvalue = [1, 0]", fillcolor="#e58139"] ;
9 -> 11 ;
12 [label="entropy = 0.0\nsamples = 37\nvalue = [0, 37]", fillcolor="#399de5"] ;
8 -> 12 ;
}